digraph Tree {
node [shape=box, style="filled, rounded", color="black", fontname=helvetica] ;
edge [fontname=helvetica] ;
0 [label="ML_Distance <= 0.12\ngini = 0.5\nsamples = 548\nvalue = [274.0, 274.0]\nclass = introduced", fillcolor="#ffffff"] ;
1 [label="ML_Distance <= 0.09\ngini = 0.39\nsamples = 293\nvalue = [54.8, 155.71]\nclass = native", fillcolor="#7fbfee"] ;
0 -> 1 [labeldistance=2.5, labelangle=45, headlabel="True"] ;
5 [label="ML_Distance <= 0.05\ngini = 0.45\nsamples = 204\nvalue = [54.8, 106.74]\nclass = native", fillcolor="#9fcff2"] ;
1 -> 5 ;
7 [label="gini = 0.0\nsamples = 83\nvalue = [0.0, 45.67]\nclass = native", fillcolor="#399de5"] ;
5 -> 7 ;
8 [label="dS_Distance <= 0.13\ngini = 0.5\nsamples = 121\nvalue = [54.8, 61.07]\nclass = native", fillcolor="#ebf5fc"] ;
5 -> 8 ;
9 [label="Ztest_Distance <= 0.0\ngini = 0.48\nsamples = 114\nvalue = [38.36, 58.87]\nclass = native", fillcolor="#baddf6"] ;
8 -> 9 ;
11 [label="dS_Distance <= 0.05\ngini = 0.4\nsamples = 108\nvalue = [21.92, 57.22]\nclass = native", fillcolor="#85c3ef"] ;
9 -> 11 ;
13 [label="gini = 0.0\nsamples = 2\nvalue = [10.96, 0.0]\nclass = introduced", fillcolor="#e58139"] ;
11 -> 13 ;
14 [label="AA_Distance <= 0.01\ngini = 0.27\nsamples = 106\nvalue = [10.96, 57.22]\nclass = native", fillcolor="#5fb0ea"] ;
11 -> 14 ;
29 [label="gini = 0.0\nsamples = 68\nvalue = [0.0, 37.41]\nclass = native", fillcolor="#399de5"] ;
14 -> 29 ;
30 [label="gini = 0.46\nsamples = 38\nvalue = [10.96, 19.81]\nclass = native", fillcolor="#a7d3f3"] ;
14 -> 30 ;
12 [label="dN_Similarity <= 0.0\ngini = 0.17\nsamples = 6\nvalue = [16.44, 1.65]\nclass = introduced", fillcolor="#e88e4d"] ;
9 -> 12 ;
49 [label="gini = 0.0\nsamples = 1\nvalue = [0.0, 0.55]\nclass = native", fillcolor="#399de5"] ;
12 -> 49 ;
50 [label="dN/dS_Distance <= 0.01\ngini = 0.12\nsamples = 5\nvalue = [16.44, 1.1]\nclass = introduced", fillcolor="#e78946"] ;
12 -> 50 ;
53 [label="gini = 0.0\nsamples = 2\nvalue = [10.96, 0.0]\nclass = introduced", fillcolor="#e58139"] ;
50 -> 53 ;
54 [label="gini = 0.28\nsamples = 3\nvalue = [5.48, 1.1]\nclass = introduced", fillcolor="#ea9a61"] ;
50 -> 54 ;
10 [label="dN_Distance <= 0.01\ngini = 0.21\nsamples = 7\nvalue = [16.44, 2.2]\nclass = introduced", fillcolor="#e89254"] ;
8 -> 10 ;
43 [label="gini = 0.0\nsamples = 3\nvalue = [0.0, 1.65]\nclass = native", fillcolor="#399de5"] ;
10 -> 43 ;
44 [label="gini = 0.06\nsamples = 4\nvalue = [16.44, 0.55]\nclass = introduced", fillcolor="#e68540"] ;
10 -> 44 ;
6 [label="gini = 0.0\nsamples = 89\nvalue = [0.0, 48.97]\nclass = native", fillcolor="#399de5"] ;
1 -> 6 ;
2 [label="dN/dS_Distance <= 0.02\ngini = 0.46\nsamples = 255\nvalue = [219.2, 118.29]\nclass = introduced", fillcolor="#f3c5a4"] ;
0 -> 2 [labeldistance=2.5, labelangle=-45, headlabel="False"] ;
3 [label="gini = 0.0\nsamples = 33\nvalue = [0.0, 18.16]\nclass = native", fillcolor="#399de5"] ;
2 -> 3 ;
4 [label="dN/dS_Distance <= 0.05\ngini = 0.43\nsamples = 222\nvalue = [219.2, 100.14]\nclass = introduced", fillcolor="#f1bb93"] ;
2 -> 4 ;
15 [label="ML_Distance <= 0.13\ngini = 0.5\nsamples = 75\nvalue = [38.36, 37.41]\nclass = introduced", fillcolor="#fefcfa"] ;
4 -> 15 ;
17 [label="dN/dS_Distance <= 0.03\ngini = 0.21\nsamples = 7\nvalue = [16.44, 2.2]\nclass = introduced", fillcolor="#e89254"] ;
15 -> 17 ;
35 [label="gini = 0.0\nsamples = 3\nvalue = [16.44, 0.0]\nclass = introduced", fillcolor="#e58139"] ;
17 -> 35 ;
36 [label="gini = 0.0\nsamples = 4\nvalue = [0.0, 2.2]\nclass = native", fillcolor="#399de5"] ;
17 -> 36 ;
18 [label="dS_Similarity <= 0.12\ngini = 0.47\nsamples = 68\nvalue = [21.92, 35.21]\nclass = native", fillcolor="#b4daf5"] ;
15 -> 18 ;
23 [label="dS_Distance <= 0.25\ngini = 0.43\nsamples = 67\nvalue = [16.44, 35.21]\nclass = native", fillcolor="#95cbf1"] ;
18 -> 23 ;
25 [label="dN/dS_Distance <= 0.04\ngini = 0.5\nsamples = 33\nvalue = [16.44, 16.51]\nclass = native", fillcolor="#feffff"] ;
23 -> 25 ;
41 [label="gini = 0.48\nsamples = 24\nvalue = [16.44, 11.55]\nclass = introduced", fillcolor="#f7dac4"] ;
25 -> 41 ;
42 [label="gini = 0.0\nsamples = 9\nvalue = [0.0, 4.95]\nclass = native", fillcolor="#399de5"] ;
25 -> 42 ;
26 [label="gini = 0.0\nsamples = 34\nvalue = [0.0, 18.71]\nclass = native", fillcolor="#399de5"] ;
23 -> 26 ;
24 [label="gini = -0.0\nsamples = 1\nvalue = [5.48, 0.0]\nclass = introduced", fillcolor="#e58139"] ;
18 -> 24 ;
16 [label="dS_Similarity <= 0.01\ngini = 0.38\nsamples = 147\nvalue = [180.84, 62.72]\nclass = introduced", fillcolor="#eead7e"] ;
4 -> 16 ;
19 [label="dS_Distance <= 0.14\ngini = 0.24\nsamples = 42\nvalue = [87.68, 14.31]\nclass = introduced", fillcolor="#e99659"] ;
16 -> 19 ;
21 [label="gini = 0.0\nsamples = 6\nvalue = [0.0, 3.3]\nclass = native", fillcolor="#399de5"] ;
19 -> 21 ;
22 [label="ML_Distance <= 0.37\ngini = 0.2\nsamples = 36\nvalue = [87.68, 11.0]\nclass = introduced", fillcolor="#e89152"] ;
19 -> 22 ;
27 [label="Ztest_Distance <= 0.0\ngini = 0.16\nsamples = 31\nvalue = [87.68, 8.25]\nclass = introduced", fillcolor="#e78d4c"] ;
22 -> 27 ;
51 [label="gini = 0.26\nsamples = 17\nvalue = [32.88, 6.05]\nclass = introduced", fillcolor="#ea985d"] ;
27 -> 51 ;
52 [label="gini = 0.07\nsamples = 14\nvalue = [54.8, 2.2]\nclass = introduced", fillcolor="#e68641"] ;
27 -> 52 ;
28 [label="gini = -0.0\nsamples = 5\nvalue = [0.0, 2.75]\nclass = native", fillcolor="#399de5"] ;
22 -> 28 ;
20 [label="Ztest_Similarity <= 0.33\ngini = 0.45\nsamples = 105\nvalue = [93.16, 48.42]\nclass = introduced", fillcolor="#f3c2a0"] ;
16 -> 20 ;
31 [label="ML_Similarity <= 0.08\ngini = 0.44\nsamples = 21\nvalue = [5.48, 11.0]\nclass = native", fillcolor="#9ccef2"] ;
20 -> 31 ;
33 [label="gini = 0.0\nsamples = 16\nvalue = [0.0, 8.8]\nclass = native", fillcolor="#399de5"] ;
31 -> 33 ;
34 [label="dN_Similarity <= 0.05\ngini = 0.41\nsamples = 5\nvalue = [5.48, 2.2]\nclass = introduced", fillcolor="#efb489"] ;
31 -> 34 ;
45 [label="gini = 0.17\nsamples = 2\nvalue = [5.48, 0.55]\nclass = introduced", fillcolor="#e88e4d"] ;
34 -> 45 ;
46 [label="gini = 0.0\nsamples = 3\nvalue = [0.0, 1.65]\nclass = native", fillcolor="#399de5"] ;
34 -> 46 ;
32 [label="dN_Distance <= 0.08\ngini = 0.42\nsamples = 84\nvalue = [87.68, 37.41]\nclass = introduced", fillcolor="#f0b78d"] ;
20 -> 32 ;
37 [label="dN_Similarity <= 0.0\ngini = 0.47\nsamples = 17\nvalue = [5.48, 8.8]\nclass = native", fillcolor="#b4daf5"] ;
32 -> 37 ;
39 [label="gini = 0.0\nsamples = 1\nvalue = [5.48, 0.0]\nclass = introduced", fillcolor="#e58139"] ;
37 -> 39 ;
40 [label="gini = -0.0\nsamples = 16\nvalue = [0.0, 8.8]\nclass = native", fillcolor="#399de5"] ;
37 -> 40 ;
38 [label="Ztest_Distance <= 0.0\ngini = 0.38\nsamples = 67\nvalue = [82.2, 28.61]\nclass = introduced", fillcolor="#eead7e"] ;
32 -> 38 ;
47 [label="gini = 0.41\nsamples = 64\nvalue = [71.24, 28.06]\nclass = introduced", fillcolor="#efb387"] ;
38 -> 47 ;
48 [label="gini = 0.09\nsamples = 3\nvalue = [10.96, 0.55]\nclass = introduced", fillcolor="#e68743"] ;
38 -> 48 ;
}